digraph Tree {
node [shape=box, style="filled, rounded", color="black", fontname="helvetica"] ;
edge [fontname="helvetica"] ;
0 [label="total_area_sqm <= 213.5\nsquared_error = 0.319\nsamples = 5162\nvalue = 12.826", fillcolor="#f2be98"] ;
1 [label="total_area_sqm <= 138.5\nsquared_error = 0.179\nsamples = 3356\nvalue = 12.603", fillcolor="#f8decc"] ;
0 -> 1 [labeldistance=2.5, labelangle=45, headlabel="True"] ;
3 [label="squared_error = 0.158\nsamples = 1230\nvalue = 12.382", fillcolor="#ffffff"] ;
1 -> 3 ;
4 [label="squared_error = 0.146\nsamples = 2126\nvalue = 12.731", fillcolor="#f4ccae"] ;
1 -> 4 ;
2 [label="squared_error = 0.317\nsamples = 1806\nvalue = 13.238", fillcolor="#e58139"] ;
0 -> 2 [labeldistance=2.5, labelangle=-45, headlabel="False"] ;
}